NNN,NNA,NNC,NNG,NNT,NAN,NAA,NAC,NAG,NAT,NCN,NCA,NCC,NCG,NCT,NGN,NGA,NGC,NGG,NGT,NTN,NTA,NTC,NTG,NTT,ANN,ANA,ANC,ANG,ANT,AAN,AAA,AAC,AAG,AAT,ACN,ACA,ACC,ACG,ACT,AGN,AGA,AGC,AGG,AGT,ATN,ATA,ATC,ATG,ATT,CNN,CNA,CNC,CNG,CNT,CAN,CAA,CAC,CAG,CAT,CCN,CCA,CCC,CCG,CCT,CGN,CGA,CGC,CGG,CGT,CTN,CTA,CTC,CTG,CTT,GNN,GNA,GNC,GNG,GNT,GAN,GAA,GAC,GAG,GAT,GCN,GCA,GCC,GCG,GCT,GGN,GGA,GGC,GGG,GGT,GTN,GTA,GTC,GTG,GTT,TNN,TNA,TNC,TNG,TNT,TAN,TAA,TAC,TAG,TAT,TCN,TCA,TCC,TCG,TCT,TGN,TGA,TGC,TGG,TGT,TTN,TTA,TTC,TTG,TTT
0.080171 ,-0.007257 ,-0.065535 ,0.080665 ,0.022265 ,0.030346 ,-0.988450 ,-0.853484 ,-0.958607 ,0.634238 ,0.034017 ,-1.007637 ,-1.084095 ,-0.939776 ,1.116551 ,0.028814 ,0.980414 ,0.988594 ,-0.316770 ,1.152384 ,-0.066970 ,0.440931 ,-0.621945 ,-0.690515 ,-0.729035 ,-0.003855 ,-0.067835 ,0.080320 ,0.081551 ,0.086249 ,-0.062777 ,-1.011628 ,-0.947171 ,-0.558644 ,0.158369 ,-0.038944 ,-1.335231 ,-1.183368 ,-1.290531 ,0.986290 ,-0.006513 ,0.942523 ,1.236659 ,-1.484173 ,1.064600 ,-0.048775 ,0.037214 ,-0.675467 ,-2.130214 ,-0.822889 ,-0.025451 ,-0.040610 ,-0.071137 ,-0.045963 ,-0.057007 ,0.069217 ,-0.985711 ,-0.767006 ,-0.256363 ,1.364455 ,-0.027260 ,-1.185571 ,-1.317967 ,-1.738800 ,1.014875 ,-0.029852 ,0.978034 ,1.162457 ,0.161350 ,1.183707 ,-0.064911 ,3.084514 ,-0.449966 ,-0.821950 ,-0.829759 ,0.073521 ,0.018566 ,0.057978 ,0.069654 ,-0.052697 ,0.039665 ,-0.978073 ,-0.827236 ,-0.735491 ,-1.123579 ,-0.025155 ,-1.284369 ,-1.235211 ,-0.642174 ,1.061890 ,-0.047004 ,0.876543 ,1.159057 ,0.158930 ,1.036135 ,0.082271 ,0.948132 ,-0.565666 ,-2.891216 ,-0.849529 ,0.031078 ,-0.081844 ,-0.033511 ,0.075506 ,-0.012461 ,-0.038681 ,-1.035245 ,-0.937801 ,-0.447001 ,3.442227 ,0.050022 ,-1.303600 ,-1.251048 ,-0.876788 ,1.015413 ,0.009301 ,1.059698 ,1.260216 ,0.511861 ,1.027407 ,0.060763 ,0.215364 ,-0.445452 ,-1.226153 ,-0.911922 
-0.015298 ,0.000600 ,-0.070244 ,0.080416 ,0.027605 ,0.069603 ,1.073097 ,1.020900 ,0.823799 ,0.294479 ,0.059477 ,1.082241 ,-0.937594 ,-0.660047 ,0.866073 ,0.068060 ,0.880120 ,0.951657 ,-0.515082 ,0.476897 ,-0.040576 ,-0.805523 ,-0.749170 ,0.358265 ,-0.811562 ,0.041210 ,0.028965 ,-0.017235 ,-0.065289 ,0.069332 ,-0.033854 ,1.444932 ,1.437176 ,0.927505 ,1.557777 ,0.058182 ,1.291264 ,-1.251110 ,-0.676641 ,1.114362 ,0.047784 ,0.833887 ,0.793386 ,-2.196845 ,-0.023318 ,-0.033398 ,-2.252164 ,-2.889469 ,-0.999288 ,-0.982911 ,0.061122 ,0.065853 ,0.041092 ,0.027562 ,0.063249 ,-0.036441 ,1.415879 ,1.257418 ,0.696634 ,0.234914 ,0.075903 ,1.128228 ,-1.034910 ,-0.377594 ,1.110848 ,0.069837 ,1.036175 ,0.919507 ,-0.418810 ,-0.117220 ,0.012027 ,0.580201 ,-0.455113 ,0.789783 ,-0.828551 ,0.018300 ,-0.060614 ,0.004885 ,-0.047980 ,0.002387 ,-0.081581 ,1.398363 ,1.360448 ,0.981445 ,2.484818 ,-0.001812 ,1.129782 ,-0.999525 ,-1.363721 ,1.125316 ,0.068928 ,0.856654 ,0.756705 ,-0.298706 ,0.107682 ,0.078240 ,-1.021283 ,-0.727133 ,-2.247606 ,-0.942997 ,0.017203 ,0.043581 ,-0.033691 ,0.045023 ,0.056010 ,-0.004142 ,1.288121 ,1.295763 ,0.819425 ,-1.457642 ,-0.052095 ,1.218307 ,-0.984642 ,-1.003891 ,1.035449 ,0.087085 ,0.750039 ,0.734544 ,0.167661 ,0.072546 ,-0.087956 ,-2.072300 ,-0.808605 ,-0.056323 ,-0.939926 
-0.022051 ,-0.055108 ,0.079155 ,0.087118 ,-0.015089 ,-0.026015 ,1.013814 ,-1.124946 ,1.208936 ,-0.705046 ,-0.011720 ,-1.050438 ,1.089287 ,0.875894 ,0.994385 ,-0.051764 ,1.066870 ,0.978446 ,0.405116 ,-1.011178 ,-0.023099 ,-0.823941 ,-0.829497 ,-0.615035 ,-0.674878 ,0.015913 ,0.071763 ,-0.086711 ,-0.073040 ,0.077027 ,0.000181 ,1.283181 ,-1.148220 ,1.473663 ,-1.973957 ,0.010082 ,-1.091612 ,0.892271 ,1.191951 ,1.197760 ,-0.036758 ,1.123969 ,0.805630 ,-0.007987 ,-1.143406 ,-0.050000 ,-2.415535 ,0.261397 ,-2.159944 ,-0.814722 ,0.063328 ,0.032873 ,0.013032 ,0.047234 ,0.069059 ,0.033752 ,1.166478 ,-0.868259 ,1.662049 ,-0.825434 ,-0.038913 ,-0.963977 ,0.705683 ,1.690935 ,1.149184 ,0.067504 ,1.205113 ,0.967111 ,0.984320 ,-1.186505 ,0.065386 ,1.033986 ,-1.861996 ,-0.629409 ,-0.723162 ,0.086843 ,0.001496 ,-0.065751 ,0.046691 ,-0.012135 ,0.078571 ,1.150248 ,-1.022152 ,1.457762 ,-2.623919 ,0.046349 ,-0.971134 ,0.785644 ,0.556601 ,1.128540 ,-0.004868 ,1.115783 ,0.875676 ,1.058471 ,-1.086943 ,0.004170 ,-0.909225 ,-1.473815 ,-3.274054 ,-0.853563 ,-0.015320 ,-0.086333 ,0.025465 ,-0.076612 ,0.043627 ,-0.088654 ,1.170757 ,-1.048618 ,1.516469 ,-0.248685 ,0.019997 ,-1.001257 ,0.796402 ,0.766789 ,1.199314 ,-0.040392 ,1.061012 ,0.930421 ,1.448243 ,-1.127588 ,0.063386 ,-2.292059 ,-1.539405 ,-1.316966 ,-0.895050 
-0.003878 ,0.050482 ,0.006895 ,0.083033 ,0.027750 ,0.066461 ,0.815720 ,-1.108938 ,-1.102804 ,-0.777916 ,0.008365 ,0.950774 ,-1.167055 ,0.741914 ,0.918098 ,0.016287 ,0.936081 ,0.808602 ,1.051237 ,0.805739 ,-0.071813 ,-0.600754 ,0.693395 ,0.308243 ,-1.086096 ,-0.006176 ,0.031859 ,-0.068460 ,-0.037056 ,-0.085282 ,0.081086 ,0.461075 ,-1.313785 ,-1.148929 ,-0.357033 ,-0.068917 ,1.265483 ,-1.002716 ,1.078837 ,1.028734 ,-0.038894 ,1.066359 ,0.914784 ,2.803331 ,0.557462 ,0.022616 ,-2.202433 ,0.690986 ,1.454231 ,-0.955465 ,-0.010426 ,-0.044604 ,0.076521 ,0.023014 ,-0.045155 ,0.066394 ,0.422525 ,-1.522218 ,-1.222339 ,-1.542488 ,-0.056815 ,1.471557 ,-1.019541 ,1.342523 ,0.948859 ,0.066870 ,1.127155 ,0.957171 ,0.975247 ,0.668059 ,-0.065844 ,1.654037 ,0.527789 ,-0.229176 ,-0.877303 ,0.084980 ,-0.071742 ,0.042601 ,0.043786 ,-0.047894 ,-0.079295 ,0.430366 ,-1.471246 ,-0.942185 ,0.557122 ,0.011234 ,1.411958 ,-1.096082 ,0.151673 ,0.999265 ,-0.019878 ,1.058623 ,0.868423 ,1.183975 ,0.501372 ,-0.077803 ,-0.572557 ,0.424433 ,2.964648 ,-0.925329 ,0.041288 ,-0.037825 ,0.005631 ,0.007134 ,0.008709 ,0.043379 ,0.567059 ,-1.441461 ,-1.124407 ,-3.335482 ,-0.051982 ,1.353816 ,-0.937119 ,0.658207 ,0.991555 ,-0.039826 ,1.006524 ,0.816760 ,1.178909 ,0.528960 ,-0.069668 ,-1.897674 ,0.592757 ,0.549866 ,-0.944101 
0.010754 ,-0.072115 ,-0.029645 ,0.039479 ,-0.074837 ,0.038102 ,-0.892006 ,-0.815528 ,1.098733 ,0.621152 ,0.018036 ,1.250643 ,0.025344 ,1.105619 ,-1.123485 ,-0.023398 ,1.090646 ,1.251580 ,-0.730752 ,-1.060545 ,0.011336 ,-0.684362 ,0.873192 ,-0.506191 ,1.147128 ,-0.036462 ,0.073573 ,-0.009707 ,-0.068940 ,-0.050046 ,0.003694 ,-1.186322 ,-1.051775 ,1.313349 ,1.825079 ,0.088215 ,1.110266 ,-0.048668 ,1.470194 ,-1.122298 ,0.010573 ,0.720529 ,1.385622 ,-1.091808 ,-1.105178 ,0.031232 ,-1.858082 ,2.131283 ,0.491931 ,1.242606 ,-0.069939 ,-0.059175 ,0.025747 ,0.030204 ,-0.083505 ,0.017215 ,-1.133506 ,-1.057079 ,1.422628 ,0.747913 ,-0.051660 ,1.165118 ,-0.209499 ,1.712824 ,-1.141981 ,0.014319 ,0.772424 ,1.330488 ,-1.546203 ,-1.060283 ,-0.077116 ,1.561813 ,0.506607 ,-1.158724 ,1.232380 ,-0.035793 ,0.033550 ,0.031331 ,-0.015752 ,-0.057285 ,-0.086258 ,-1.231447 ,-1.061277 ,1.233562 ,2.444923 ,0.045080 ,1.094006 ,-0.316149 ,0.983222 ,-1.125611 ,0.042731 ,0.666564 ,1.403871 ,-1.696839 ,-1.074485 ,0.014952 ,-0.478976 ,0.811355 ,1.893523 ,1.249290 ,-0.010073 ,-0.050906 ,-0.077056 ,-0.056571 ,-0.029821 ,-0.078662 ,-1.284179 ,-1.103206 ,1.348528 ,-0.204501 ,-0.050706 ,1.178042 ,-0.203133 ,1.087159 ,-1.247007 ,0.068017 ,0.693672 ,1.340527 ,-2.155405 ,-1.093500 ,0.058100 ,-1.660813 ,0.718577 ,-0.426775 ,1.322191 
-0.018936 ,-0.054049 ,-0.041432 ,-0.048657 ,-0.008334 ,0.030123 ,1.047287 ,-0.768575 ,-1.038171 ,0.671360 ,0.049230 ,-1.108749 ,1.265517 ,1.004587 ,1.211826 ,-0.075989 ,-1.120562 ,-0.290069 ,-0.954956 ,-0.891073 ,0.016978 ,-1.106020 ,0.887477 ,0.831046 ,-1.048444 ,0.079167 ,0.056192 ,0.047976 ,0.052935 ,0.033416 ,0.033740 ,0.984922 ,-1.076681 ,-1.336300 ,0.319646 ,0.032200 ,-1.330175 ,1.480177 ,1.420268 ,1.284344 ,0.064059 ,-1.499902 ,-0.579217 ,-3.404332 ,-1.073698 ,-0.088465 ,-2.510588 ,1.598332 ,2.379250 ,-1.255554 ,-0.054247 ,-0.074350 ,-0.068040 ,-0.086909 ,-0.067259 ,0.000722 ,0.940864 ,-0.802120 ,-1.209704 ,1.320161 ,0.063242 ,-1.415864 ,1.543381 ,1.591069 ,1.183964 ,0.088325 ,-1.327673 ,-0.677553 ,-1.311569 ,-1.060613 ,0.024869 ,-0.969690 ,0.896373 ,1.165058 ,-1.300671 ,0.057271 ,0.013319 ,-0.003402 ,0.021653 ,-0.012634 ,-0.088349 ,0.921618 ,-0.979635 ,-1.381269 ,-0.550088 ,0.083306 ,-1.471353 ,1.528852 ,1.032511 ,1.175722 ,0.038675 ,-1.500904 ,-0.529355 ,-1.301415 ,-1.071270 ,0.083507 ,-1.286438 ,0.889620 ,3.379785 ,-1.292658 ,-0.020502 ,-0.017985 ,-0.037333 ,0.066100 ,-0.057799 ,0.043058 ,0.998758 ,-1.024335 ,-1.229904 ,3.219453 ,0.011128 ,-1.309057 ,1.576346 ,1.210327 ,1.286171 ,-0.000858 ,-1.398392 ,-0.527990 ,-1.053323 ,-1.098549 ,0.071877 ,-2.497404 ,0.887137 ,1.595085 ,-1.276677 
0.050610 ,-0.036535 ,-0.012790 ,0.011947 ,0.071057 ,0.041215 ,-1.074153 ,0.254954 ,1.091234 ,0.255954 ,-0.026163 ,1.250901 ,1.025765 ,0.730544 ,0.927712 ,-0.015303 ,-0.576389 ,0.968999 ,0.513374 ,1.079984 ,0.034114 ,-0.948276 ,-0.901054 ,-0.585691 ,-1.144102 ,-0.031598 ,-0.082063 ,0.063148 ,0.055897 ,-0.035177 ,-0.015481 ,-1.388372 ,0.248435 ,0.913121 ,1.609765 ,0.019755 ,1.627239 ,0.882059 ,0.672739 ,0.478585 ,0.066522 ,-0.526622 ,0.829445 ,0.024413 ,0.957655 ,-0.019763 ,-2.485899 ,-0.157109 ,-1.887216 ,-1.443307 ,0.047551 ,-0.072151 ,-0.048665 ,-0.022981 ,-0.030463 ,-0.073990 ,-1.383880 ,-0.004811 ,0.764310 ,0.465386 ,-0.062384 ,1.660659 ,0.922316 ,1.014414 ,0.462270 ,-0.071841 ,-0.198559 ,0.761244 ,1.142416 ,0.977904 ,-0.069982 ,-0.481072 ,-2.262698 ,-0.470182 ,-1.418706 ,0.063645 ,-0.081992 ,0.052094 ,0.083272 ,-0.002439 ,0.019635 ,-1.393419 ,0.140541 ,0.713685 ,2.639574 ,0.004117 ,1.734094 ,0.912716 ,-0.143856 ,0.356586 ,-0.072168 ,-0.560917 ,0.791683 ,1.319490 ,0.852479 ,0.009086 ,-1.174237 ,-1.979040 ,-3.109806 ,-1.404570 ,-0.042140 ,-0.080323 ,0.075449 ,-0.047776 ,0.047490 ,-0.023247 ,-1.320851 ,0.115703 ,0.830416 ,-1.037066 ,-0.054975 ,1.599242 ,0.879584 ,0.268163 ,0.523820 ,-0.007605 ,-0.260746 ,0.792469 ,1.615952 ,0.913240 ,0.016716 ,-2.580741 ,-1.955612 ,-0.994713 ,-1.443645 
-0.040529 ,0.076407 ,0.003722 ,-0.024147 ,0.050105 ,0.001684 ,0.886784 ,-1.132770 ,-0.215645 ,-0.377376 ,-0.047356 ,1.170049 ,-0.775211 ,-0.822816 ,-1.042158 ,-0.007090 ,-1.034459 ,1.282858 ,-0.476773 ,-1.046894 ,0.025121 ,1.175206 ,-0.988788 ,0.771109 ,0.996239 ,-0.000576 ,0.042280 ,0.006070 ,-0.075786 ,-0.043202 ,0.043835 ,0.995007 ,-1.523480 ,-0.384322 ,-1.556061 ,-0.037065 ,0.943646 ,-0.702217 ,-1.332429 ,-1.264712 ,0.074327 ,-1.167753 ,1.437739 ,-0.431568 ,-1.226949 ,0.034274 ,2.888583 ,0.112349 ,2.334770 ,1.296499 ,0.033170 ,-0.006279 ,0.044630 ,-0.077102 ,-0.038710 ,-0.022230 ,1.032901 ,-1.665273 ,-0.041068 ,-0.457869 ,0.014058 ,0.623685 ,-0.676296 ,-1.640830 ,-1.365624 ,-0.031455 ,-1.078171 ,1.455023 ,-1.111992 ,-1.079095 ,0.062392 ,0.729700 ,-2.057257 ,1.022286 ,1.296072 ,0.034591 ,-0.020850 ,0.082018 ,0.032804 ,0.080727 ,-0.071747 ,0.945792 ,-1.587876 ,-0.367670 ,-2.472062 ,0.046947 ,0.736176 ,-0.784345 ,-0.563696 ,-1.388483 ,0.050994 ,-1.198633 ,1.467251 ,-1.272604 ,-1.285260 ,0.069675 ,1.269273 ,-1.726421 ,3.208117 ,1.237967 ,0.083738 ,-0.036891 ,-0.011722 ,0.034421 ,-0.010235 ,0.001643 ,0.992771 ,-1.509771 ,-0.395738 ,0.177331 ,-0.072111 ,0.940413 ,-0.787156 ,-0.982390 ,-1.253244 ,-0.043005 ,-1.093449 ,1.495237 ,-1.582030 ,-1.167904 ,-0.074386 ,2.746955 ,-1.683353 ,1.486900 ,1.325747 
-0.002249 ,-0.044870 ,0.008644 ,0.046395 ,-0.071160 ,0.045423 ,-1.120475 ,-0.961823 ,-0.996786 ,0.529535 ,0.069909 ,1.077188 ,-1.044559 ,0.967016 ,-1.061682 ,-0.014596 ,0.886110 ,-1.044603 ,-0.337919 ,0.623663 ,-0.058765 ,0.389350 ,-0.961148 ,0.666623 ,-1.113419 ,-0.023492 ,-0.016201 ,-0.055569 ,-0.005735 ,-0.026059 ,-0.018772 ,-1.004560 ,-1.009465 ,-0.916354 ,1.750142 ,0.087323 ,1.364951 ,-0.899627 ,1.324314 ,-1.198544 ,0.057702 ,0.941622 ,-1.080994 ,0.316962 ,0.621553 ,-0.072630 ,0.150459 ,0.157334 ,2.149663 ,-1.272622 ,0.080349 ,-0.041530 ,-0.006113 ,-0.035862 ,-0.023564 ,-0.039220 ,-0.902991 ,-0.810945 ,-0.704377 ,0.650446 ,0.046341 ,1.147902 ,-0.834764 ,1.633246 ,-1.146962 ,0.020677 ,0.984269 ,-1.200733 ,-0.983777 ,0.703214 ,0.073609 ,2.942172 ,-2.181643 ,0.729235 ,-1.332460 ,-0.064951 ,-0.062716 ,-0.065855 ,0.074827 ,0.019821 ,-0.001886 ,-0.919042 ,-0.862280 ,-0.822809 ,2.776422 ,0.053540 ,1.165807 ,-0.754887 ,0.583962 ,-1.193321 ,-0.016142 ,0.992335 ,-1.200359 ,-1.145486 ,0.507383 ,0.013428 ,0.982822 ,-1.720082 ,3.449219 ,-1.257712 ,0.065107 ,0.089000 ,0.026570 ,-0.029210 ,0.035773 ,0.053743 ,-0.976956 ,-0.883091 ,-0.849941 ,-0.796015 ,0.044503 ,1.345077 ,-0.825508 ,0.846266 ,-1.198677 ,-0.006710 ,0.955068 ,-1.175459 ,-1.455973 ,0.484244 ,0.014838 ,0.232115 ,-1.670956 ,1.210744 ,-1.358421 
-0.035314 ,0.055863 ,-0.066353 ,-0.067629 ,-0.055665 ,0.022265 ,0.906283 ,-0.954431 ,1.171501 ,0.959056 ,0.005334 ,-1.045264 ,-1.125112 ,0.960250 ,-0.964309 ,-0.063666 ,0.980222 ,-1.020574 ,-0.555313 ,1.167540 ,0.058487 ,0.256384 ,-0.802302 ,-0.606145 ,-0.769930 ,-0.071552 ,0.000266 ,0.058687 ,0.022132 ,0.003405 ,0.073641 ,0.828378 ,-0.916874 ,1.370577 ,0.277887 ,0.040792 ,-1.412681 ,-1.137243 ,1.571277 ,-1.099257 ,-0.063593 ,0.920927 ,-1.387465 ,-2.273804 ,1.198599 ,-0.023167 ,-0.406517 ,-1.086345 ,-1.562672 ,-0.928068 ,-0.058284 ,0.050414 ,0.041699 ,-0.051154 ,-0.077382 ,-0.084371 ,0.749240 ,-1.009052 ,1.239009 ,1.108236 ,-0.065103 ,-1.663852 ,-1.133434 ,1.980099 ,-1.224163 ,-0.048590 ,1.051200 ,-1.269331 ,-0.587120 ,1.207469 ,0.029867 ,2.586933 ,-0.671323 ,-0.271400 ,-0.929642 ,-0.072670 ,0.006381 ,-0.063692 ,-0.016850 ,0.082926 ,-0.010972 ,0.801655 ,-1.030020 ,1.379277 ,-0.230881 ,-0.031096 ,-1.649547 ,-1.146336 ,1.074252 ,-1.252468 ,-0.030594 ,0.848608 ,-1.320718 ,-0.366800 ,1.212448 ,-0.049141 ,0.660412 ,-0.598604 ,-2.358494 ,-0.909261 ,0.058761 ,0.045950 ,0.010325 ,-0.025636 ,-0.053666 ,-0.062523 ,0.960246 ,-0.980821 ,1.263962 ,2.662349 ,0.028031 ,-1.438721 ,-1.185107 ,1.324760 ,-1.193052 ,0.048393 ,0.919026 ,-1.314063 ,-0.277064 ,1.256760 ,0.020778 ,-0.283014 ,-0.732299 ,-0.740272 ,-0.929323 
-0.039120 ,0.042076 ,-0.003109 ,0.037183 ,-0.027328 ,-0.022976 ,-1.273105 ,-0.490379 ,-1.206103 ,0.437825 ,-0.056804 ,-1.216472 ,0.957626 ,0.755229 ,-0.021243 ,0.077957 ,-1.108920 ,0.821992 ,0.555363 ,1.043133 ,0.010032 ,-0.473015 ,-0.945873 ,0.891665 ,1.068142 ,-0.051217 ,0.070669 ,0.013652 ,0.070464 ,-0.005993 ,-0.000063 ,-1.542960 ,0.481479 ,-1.306436 ,-0.470898 ,0.034061 ,-1.480709 ,1.113139 ,1.349515 ,0.629431 ,0.008480 ,-1.111184 ,1.257059 ,-0.063650 ,1.500936 ,-0.018166 ,0.068073 ,-1.817583 ,0.992533 ,1.311477 ,-0.000108 ,0.068937 ,0.083101 ,0.021054 ,0.054748 ,0.044602 ,-1.604833 ,0.196288 ,-1.228524 ,0.523477 ,-0.070470 ,-1.515191 ,1.198239 ,1.674531 ,0.622131 ,0.060941 ,-1.099819 ,1.103389 ,1.191182 ,1.447271 ,0.062919 ,-3.039158 ,-1.129046 ,1.814257 ,1.335361 ,-0.024099 ,0.019717 ,-0.023511 ,0.046881 ,-0.050507 ,0.039074 ,-1.595737 ,0.340905 ,-1.123668 ,-1.127581 ,-0.000671 ,-1.574780 ,1.082364 ,0.903299 ,0.589208 ,0.012031 ,-1.077744 ,1.142771 ,1.434931 ,1.554052 ,0.054131 ,-0.932237 ,-1.040284 ,1.143579 ,1.329527 ,-0.004770 ,-0.004933 ,-0.042807 ,-0.072884 ,-0.023856 ,-0.001786 ,-1.550798 ,0.349801 ,-1.204024 ,2.146725 ,-0.054676 ,-1.467860 ,1.185821 ,1.116187 ,0.642605 ,0.048580 ,-1.208208 ,1.068667 ,1.671501 ,1.577613 ,-0.018110 ,-0.026571 ,-1.186139 ,1.457283 ,1.324589 
0.063296 ,-0.011611 ,-0.012116 ,0.075512 ,0.025976 ,0.014897 ,-1.103289 ,-1.147356 ,1.051625 ,0.499033 ,0.012958 ,1.002748 ,-1.245256 ,-0.921971 ,1.190235 ,-0.077794 ,0.840981 ,-1.190143 ,0.466863 ,-1.133644 ,0.009057 ,-0.309110 ,0.855101 ,0.240986 ,1.082470 ,-0.081324 ,-0.085432 ,-0.055326 ,0.085055 ,0.014245 ,-0.087517 ,-1.249111 ,-1.424183 ,1.142339 ,1.790285 ,-0.026347 ,1.162935 ,-1.279633 ,-1.402361 ,1.480625 ,0.033662 ,0.862148 ,-1.361270 ,-0.243078 ,-0.853646 ,0.011498 ,0.321583 ,-0.103647 ,-1.069448 ,1.318626 ,0.018336 ,0.014704 ,0.034988 ,0.053468 ,-0.066615 ,-0.012489 ,-1.222955 ,-1.384157 ,0.907327 ,0.562822 ,-0.054522 ,1.090215 ,-1.313344 ,-1.760874 ,1.533842 ,0.086928 ,0.889030 ,-1.340477 ,1.103351 ,-0.960777 ,0.025225 ,-2.605947 ,1.835253 ,0.613470 ,1.304093 ,0.082414 ,0.008535 ,0.037668 ,-0.048183 ,-0.043157 ,0.053075 ,-1.286899 ,-1.359976 ,1.003319 ,2.456499 ,0.002800 ,0.985660 ,-1.353664 ,-0.845867 ,1.481310 ,-0.024907 ,0.873987 ,-1.295186 ,1.265247 ,-0.912169 ,0.053390 ,-0.655174 ,1.573104 ,-2.633974 ,1.361368 ,0.040791 ,-0.072517 ,-0.020022 ,0.042016 ,0.059849 ,0.022232 ,-1.362980 ,-1.430970 ,1.023383 ,-0.024686 ,-0.087127 ,1.079009 ,-1.344722 ,-1.092508 ,1.480735 ,0.047551 ,0.800285 ,-1.304937 ,1.668567 ,-0.870617 ,-0.042271 ,0.274252 ,1.554368 ,-0.176781 ,1.323848 
0.037931 ,0.065452 ,0.051254 ,-0.053126 ,0.005332 ,-0.041556 ,-0.352761 ,-0.469066 ,-0.779383 ,-0.696836 ,-0.071806 ,1.305060 ,1.254252 ,-0.591463 ,1.087357 ,-0.014551 ,1.229748 ,-0.389169 ,-0.508386 ,1.257580 ,0.079377 ,-0.816862 ,-0.376433 ,-0.529896 ,1.159698 ,-0.058629 ,-0.051450 ,-0.084591 ,-0.031112 ,-0.053762 ,0.026264 ,-1.059430 ,-1.186138 ,-1.432533 ,-0.286657 ,0.035435 ,1.381054 ,1.552011 ,-1.240687 ,0.974930 ,0.065820 ,1.306985 ,-0.803081 ,0.033316 ,1.531173 ,-0.047013 ,-0.602195 ,0.211987 ,-2.078893 ,1.091415 ,0.006871 ,0.028947 ,-0.002476 ,0.033585 ,0.083572 ,0.065676 ,-0.988284 ,-0.882366 ,-1.364244 ,-0.983952 ,0.045733 ,1.333741 ,1.528391 ,-1.509632 ,0.987373 ,-0.087897 ,1.247291 ,-0.894616 ,-1.427325 ,1.374821 ,0.024972 ,-3.282486 ,-1.550255 ,-0.577028 ,1.099742 ,0.047976 ,0.000584 ,0.021155 ,0.074715 ,-0.026981 ,-0.081109 ,-0.956550 ,-1.093180 ,-1.337975 ,-0.017399 ,0.072316 ,1.330146 ,1.466932 ,-0.556738 ,0.958595 ,0.074165 ,1.345312 ,-0.849502 ,-1.536037 ,1.545283 ,-0.032297 ,-0.903791 ,-1.486274 ,-3.207717 ,1.095826 ,0.073918 ,0.050943 ,0.010034 ,-0.027545 ,0.058568 ,-0.032972 ,-1.096584 ,-1.107217 ,-1.312691 ,-2.694762 ,-0.037447 ,1.433022 ,1.486826 ,-0.872727 ,0.969051 ,0.001423 ,1.284472 ,-0.865086 ,-1.829155 ,1.561611 ,-0.026577 ,-0.426900 ,-1.461089 ,-1.198135 ,1.092067 
-0.074102 ,0.058369 ,-0.076026 ,-0.059972 ,0.020659 ,-0.075301 ,0.726295 ,0.990160 ,1.121446 ,-0.480027 ,-0.075910 ,1.247688 ,-0.832865 ,1.052259 ,1.086998 ,-0.000121 ,-0.895085 ,-0.999064 ,-0.230030 ,1.097473 ,-0.047841 ,-0.891540 ,-0.892583 ,0.504448 ,1.107029 ,0.011839 ,0.028625 ,0.019310 ,0.002260 ,-0.019607 ,0.034462 ,-0.282760 ,0.983783 ,1.046210 ,-1.928050 ,0.034635 ,1.347837 ,-0.841298 ,1.475497 ,1.303761 ,-0.056593 ,-1.006846 ,-1.009712 ,1.178286 ,0.971630 ,-0.054764 ,-2.763325 ,-0.159645 ,1.672467 ,0.740654 ,-0.031059 ,0.031887 ,0.065234 ,0.029939 ,-0.035111 ,0.036138 ,-0.204732 ,0.866581 ,1.040573 ,-0.741499 ,-0.047795 ,1.216271 ,-0.916932 ,1.748126 ,1.259255 ,-0.001238 ,-1.142539 ,-1.018115 ,-0.564618 ,1.156202 ,0.055826 ,0.491460 ,-2.124058 ,0.194360 ,0.632314 ,0.069242 ,0.035380 ,0.056330 ,-0.078518 ,0.016118 ,0.021841 ,-0.178713 ,0.948086 ,1.105007 ,-2.668538 ,-0.056332 ,1.113200 ,-0.876187 ,0.968772 ,1.280152 ,0.049496 ,-1.039701 ,-0.989215 ,-0.707369 ,0.933384 ,0.066833 ,-1.054447 ,-1.893741 ,3.007131 ,0.720480 ,-0.017366 ,0.043796 ,0.030807 ,0.032005 ,-0.017812 ,0.000917 ,-0.236844 ,1.011301 ,1.043061 ,0.028430 ,-0.037032 ,1.299171 ,-0.844774 ,1.181491 ,1.270526 ,0.021319 ,-1.147991 ,-0.990137 ,-0.977114 ,0.915610 ,0.060733 ,-2.512418 ,-1.958573 ,0.786387 ,0.655836 
-0.034409 ,-0.015963 ,0.075309 ,0.088670 ,0.006725 ,-0.085122 ,-1.207829 ,0.959530 ,1.134716 ,-0.765858 ,0.059010 ,-0.503569 ,-1.074523 ,-0.991112 ,1.192645 ,-0.070042 ,-0.937393 ,0.939284 ,-0.376232 ,0.832162 ,-0.031242 ,0.326308 ,1.002723 ,1.047572 ,0.995153 ,-0.010969 ,-0.085398 ,0.010075 ,-0.072226 ,0.037148 ,-0.038866 ,-1.326551 ,1.178177 ,1.635109 ,-0.256113 ,0.010641 ,0.022310 ,-1.049461 ,-1.213794 ,1.515061 ,-0.039983 ,-0.677932 ,1.025350 ,0.163343 ,1.039146 ,0.076474 ,-0.300614 ,-0.253173 ,0.866101 ,1.185156 ,0.008984 ,-0.053128 ,-0.004789 ,0.058239 ,0.039456 ,0.064235 ,-1.481456 ,1.056012 ,1.662369 ,-1.011333 ,-0.072609 ,0.170909 ,-0.736741 ,-1.358247 ,1.596059 ,0.063828 ,-0.848715 ,1.097732 ,-1.090926 ,0.828018 ,0.002516 ,2.254776 ,2.249123 ,1.412717 ,1.119748 ,0.003803 ,0.062205 ,0.037787 ,0.036991 ,-0.062386 ,-0.072745 ,-1.422892 ,1.151619 ,1.981945 ,0.357941 ,-0.027782 ,0.201893 ,-0.656293 ,-1.184492 ,1.605796 ,-0.062543 ,-0.571885 ,1.122957 ,-1.233728 ,0.947304 ,-0.052707 ,0.458245 ,1.691517 ,1.740241 ,1.164875 ,-0.004606 ,-0.034454 ,0.054898 ,0.084861 ,-0.036388 ,-0.032598 ,-1.403607 ,1.140472 ,1.497590 ,-2.636619 ,-0.015414 ,0.125681 ,-0.841920 ,-1.124588 ,1.525745 ,0.031463 ,-0.852087 ,0.992816 ,-1.641965 ,0.958690 ,0.004833 ,-0.275938 ,1.654474 ,1.080094 ,1.035388 
0.081883 ,-0.061732 ,-0.008873 ,0.085291 ,0.081519 ,0.061970 ,0.850845 ,-1.182426 ,1.097051 ,0.251046 ,0.011209 ,1.013432 ,0.888101 ,-1.064533 ,-0.665957 ,-0.043689 ,-1.141860 ,-1.215470 ,0.406724 ,0.880446 ,0.087584 ,-0.493230 ,0.741429 ,0.587752 ,-0.907471 ,0.081875 ,-0.008499 ,0.043389 ,-0.023796 ,0.041208 ,-0.005264 ,0.583315 ,-1.333224 ,1.208574 ,1.388617 ,0.066494 ,1.350388 ,1.048936 ,-1.682713 ,-0.517171 ,0.017455 ,-1.247904 ,-1.420034 ,-0.381993 ,0.833645 ,-0.083826 ,-1.683665 ,-0.650303 ,1.902493 ,-0.784901 ,0.074607 ,-0.014414 ,-0.023809 ,0.032869 ,0.002511 ,0.082547 ,0.598274 ,-1.276348 ,1.176041 ,0.242135 ,-0.029145 ,1.294575 ,0.964552 ,-1.980940 ,-0.584113 ,-0.075888 ,-1.125721 ,-1.412239 ,1.115466 ,0.927345 ,-0.018072 ,2.045621 ,1.743320 ,0.494694 ,-0.843246 ,0.079600 ,-0.056201 ,0.016199 ,0.077615 ,0.011860 ,0.048708 ,0.571239 ,-1.278841 ,1.303019 ,2.603922 ,0.024874 ,1.315472 ,1.052181 ,-1.652273 ,-0.533488 ,-0.017186 ,-1.312156 ,-1.418948 ,1.255878 ,0.921060 ,0.058042 ,-0.081966 ,1.328781 ,3.117342 ,-0.848584 ,0.038595 ,0.006127 ,-0.066250 ,0.022247 ,-0.078119 ,-0.020957 ,0.810959 ,-1.327504 ,1.209809 ,-1.335172 ,-0.065988 ,1.385422 ,1.034643 ,-1.622715 ,-0.569599 ,0.009494 ,-1.266417 ,-1.428477 ,1.578794 ,0.840234 ,-0.072322 ,-1.550498 ,1.301687 ,1.129991 ,-0.804396 
